[{"name": "dense", "kernel": [[0.23630252480506897, -0.012074279598891735, 0.7859085202217102, -1.262629747390747, 0.21063758432865143, -1.1906081438064575, 1.1297972202301025, -0.06729182600975037, 0.3466026186943054, 0.1837342381477356, 0.3553723990917206, -1.4714159965515137, -0.30453264713287354, -0.6648064255714417, 0.9153380990028381, -0.5460380911827087], [1.2077652215957642, -1.4788637161254883, 0.44368380308151245, -0.5818578004837036, 1.5607236623764038, 0.5581732988357544, -1.044810175895691, -0.3105320334434509, -1.1664561033248901, -0.26703426241874695, 1.6813410520553589, -0.5046465396881104, -0.44683465361595154, 1.304890751838684, -0.8510214686393738, 1.236480951309204], [0.17511901259422302, -0.4852989614009857, 0.5179843306541443, 0.7905564308166504, -0.4013402760028839, -0.05972243845462799, 0.643647313117981, -0.30025196075439453, -0.4238588809967041, 0.08208808302879333, 0.5340312123298645, 0.47385239601135254, 0.062285006046295166, 0.10308851301670074, -0.13149183988571167, -0.28595587611198425], [0.4285125732421875, 0.6775920987129211, -0.530192494392395, 0.2730792760848999, -0.08249952644109726, 0.8114131093025208, 0.25058430433273315, -0.0954500138759613, 0.49337300658226013, 0.1560087949037552, -0.30913323163986206, 0.6019809246063232, -0.2670106589794159, -0.06927429139614105, -0.09934879839420319, 0.3402625620365143], [0.18217509984970093, 0.48820075392723083, 0.31303349137306213, -0.4198189377784729, 0.09494172036647797, -0.32705944776535034, 0.16221103072166443, 0.5179392695426941, 0.25522392988204956, -0.44283363223075867, -0.07537641376256943, -0.2910255491733551, 0.23812109231948853, 0.5722217559814453, -0.10770779103040695, 0.3024561107158661], [-0.36934852600097656, 0.02944154292345047, -0.25111496448516846, 0.7847045063972473, 0.21272502839565277, 0.8154916167259216, 0.13900884985923767, -0.1690693199634552, 0.16379928588867188, -0.36047813296318054, 0.17357634007930756, -0.11971858888864517, -0.2706753611564636, 0.1376805305480957, 0.42570817470550537, 0.2020980417728424]], "bias": [-0.08275580406188965, 0.47978001832962036, -0.01647344045341015, 0.4949679374694824, -0.14755091071128845, 0.24982717633247375, 0.26364487409591675, 0.0, 0.2669098675251007, -0.028691604733467102, -0.003255450166761875, 0.3142852485179901, 0.0, -0.25140509009361267, -0.017060132697224617, -0.14164304733276367]}, {"name": "dense_1", "kernel": [[0.7473654747009277, 0.033864378929138184, 0.3545595407485962, 0.32783275842666626, -0.20721980929374695, -0.21210820972919464, -0.5408036708831787, 0.49136289954185486, -0.3749468922615051, 0.16814251244068146, 0.5102308392524719, 0.18199662864208221], [-1.5862553119659424, -0.16754329204559326, -4.265071392059326, 0.0839274525642395, 0.997649073600769, -0.1976703405380249, 1.5576369762420654, -1.564188003540039, -0.08738341927528381, 0.6746814846992493, -2.11643123626709, 0.548407256603241], [-1.814454436302185, -0.3049614429473877, -0.09104640781879425, -0.18880119919776917, 0.11666150391101837, 0.08463690429925919, 1.023125171661377, -1.1182211637496948, -0.24463550746440887, 0.361713171005249, -1.230426549911499, -0.09627658128738403], [-0.12838028371334076, 0.06988859176635742, 0.05100683122873306, 0.02955809235572815, 0.9547048807144165, 0.29763951897621155, 1.0518944263458252, 0.47267961502075195, -0.3866525888442993, -0.25216132402420044, -0.31100547313690186, 0.8598906993865967], [1.8133761882781982, -0.2484326809644699, 0.46888405084609985, -0.3888922929763794, -0.9317592978477478, -0.18964329361915588, -1.3017551898956299, 1.3945579528808594, 0.10747396945953369, 0.006323568988591433, 1.444962739944458, -0.18524622917175293], [0.2472614347934723, -0.20888996124267578, -0.018600894138216972, -0.28051936626434326, 0.44908592104911804, -0.3729099929332733, 0.3810572028160095, 0.42314013838768005, -0.219010591506958, -0.45105889439582825, 0.384098619222641, 0.8332604765892029], [0.015069314278662205, -0.35211458802223206, -0.9574499130249023, -0.020297378301620483, 0.16016413271427155, -0.3278122544288635, 1.058013677597046, -0.49687930941581726, -0.16794155538082123, 1.3291133642196655, -0.13441325724124908, -0.5622418522834778], [-0.15522783994674683, 0.1588851809501648, -0.44770851731300354, 0.28299587965011597, 0.059323668479919434, 0.41398853063583374, 0.23745208978652954, -0.0780855119228363, 0.35870277881622314, -0.22359418869018555, -0.38189497590065, 0.4578888416290283], [-1.2345141172409058, -0.38025349378585815, -2.471712112426758, 0.03594332933425903, 0.7121761441230774, 0.10101675987243652, 1.476968765258789, -0.7281968593597412, 0.2555018365383148, 1.0987874269485474, -1.2458328008651733, -0.14608897268772125], [0.2587977945804596, 0.12790900468826294, -0.13490529358386993, -0.025862038135528564, 0.46731409430503845, -0.1968872845172882, -0.16934934258460999, 0.13434523344039917, -0.03782518208026886, 0.13433876633644104, 0.3500858247280121, 0.0322081595659256], [1.1308362483978271, -0.3783339858055115, 0.2809046506881714, -0.26409897208213806, -0.7843039631843567, 0.15401749312877655, -0.7463111281394958, 0.9710773229598999, 0.05712886527180672, 0.07484147697687149, 1.035255789756775, 0.32448574900627136], [-0.8459491729736328, -0.2899899184703827, -0.19185422360897064, -0.09077996015548706, 1.4710884094238281, 0.2717307209968567, 1.254952311515808, -0.6055662035942078, 0.06889650970697403, -1.6861860752105713, -0.6223885416984558, 1.372422456741333], [-0.21345648169517517, -0.012352317571640015, -0.36805856227874756, 0.18585073947906494, 0.45922887325286865, 0.3463484048843384, -0.07769262790679932, 0.22518664598464966, -0.09019613265991211, 0.340668261051178, 0.33527588844299316, -0.2464415580034256], [1.1613914966583252, -0.17530834674835205, 0.727025032043457, 0.13689720630645752, -0.3264986574649811, -0.20876680314540863, -0.3162669241428375, 1.1561342477798462, 0.34785041213035583, -1.1938420534133911, 0.6873254179954529, -0.019559502601623535], [-0.8044207692146301, -0.006427943706512451, -0.07699418067932129, -0.0076133012771606445, -1.0380841493606567, -0.09215834736824036, 0.5413426160812378, -0.5092509388923645, 0.32650116086006165, 1.6522717475891113, -0.03350799158215523, -1.8678516149520874], [0.9951436519622803, -0.13185149431228638, 0.6113041043281555, -0.17003482580184937, 0.21929378807544708, 0.015098892152309418, -0.5062806010246277, 1.0541760921478271, 0.38330379128456116, -0.3082983195781708, 0.0037956060841679573, 0.3024100363254547]], "bias": [0.004977566190063953, 0.0, -0.21391452848911285, 0.0, 0.27220556139945984, -0.05209658667445183, 0.44233232736587524, -0.012412655167281628, -0.06606156378984451, 0.16174545884132385, -0.1311183124780655, 0.2810169756412506]}, {"name": "dense_2", "kernel": [[-2.0218346118927, -1.218895673751831, 0.6727715730667114, 1.0967559814453125], [-0.24788454174995422, 0.5702868103981018, 0.6100450158119202, -0.25776150822639465], [0.2362155318260193, 1.1247011423110962, 2.149392604827881, -2.693521022796631], [-0.25686198472976685, -0.12443065643310547, -0.04077702760696411, 0.10914826393127441], [-0.08596569299697876, 0.9663376212120056, -1.0981698036193848, 0.2680647373199463], [-0.08872576057910919, 0.1210179552435875, -0.4594396650791168, 0.29086124897003174], [0.8137199878692627, 1.3623323440551758, -2.8362350463867188, -1.2314056158065796], [-1.9730567932128906, -0.7409650087356567, 0.4658550024032593, 0.6595223546028137], [0.45448464155197144, 0.10142526030540466, 0.31495484709739685, -0.2017638385295868], [1.1977614164352417, -1.256954312324524, 1.97611403465271, -2.434117078781128], [-0.2646212875843048, -3.7698276042938232, 2.1429662704467773, 0.1724136620759964], [-0.7684046030044556, 0.5603008270263672, -0.8072912693023682, 0.8359598517417908]], "bias": [0.18123352527618408, 0.09514816105365753, -0.41762906312942505, 0.15449519455432892]}]